digraph Tree {
node [shape=box, fontname="helvetica"] ;
edge [fontname="helvetica"] ;
0 [label="desc1 <= -0.22\nsquared_error = 4492.349\nsamples = 412\nvalue = -4.079"] ;
1 [label="desc5 <= -0.048\nsquared_error = 4212.815\nsamples = 171\nvalue = -32.938"] ;
0 -> 1 [labeldistance=2.5, labelangle=45, headlabel="True"] ;
2 [label="desc4 <= -1.187\nsquared_error = 1862.032\nsamples = 83\nvalue = -81.69"] ;
1 -> 2 ;
3 [label="desc5 <= -0.895\nsquared_error = 826.85\nsamples = 11\nvalue = -54.286"] ;
2 -> 3 ;
4 [label="squared_error = 211.643\nsamples = 3\nvalue = -96.745"] ;
3 -> 4 ;
5 [label="desc1 <= -0.493\nsquared_error = 290.769\nsamples = 8\nvalue = -41.221"] ;
3 -> 5 ;
6 [label="desc1 <= -0.765\nsquared_error = 283.312\nsamples = 6\nvalue = -36.561"] ;
5 -> 6 ;
7 [label="(...)"] ;
6 -> 7 ;
10 [label="(...)"] ;
6 -> 10 ;
11 [label="squared_error = 1.86\nsamples = 2\nvalue = -56.757"] ;
5 -> 11 ;
12 [label="desc5 <= -0.614\nsquared_error = 1887.867\nsamples = 72\nvalue = -85.849"] ;
2 -> 12 ;
13 [label="desc1 <= -0.473\nsquared_error = 1297.39\nsamples = 44\nvalue = -104.942"] ;
12 -> 13 ;
14 [label="desc2 <= -0.479\nsquared_error = 1147.539\nsamples = 33\nvalue = -115.852"] ;
13 -> 14 ;
15 [label="(...)"] ;
14 -> 15 ;
28 [label="(...)"] ;
14 -> 28 ;
45 [label="desc1 <= -0.232\nsquared_error = 389.064\nsamples = 11\nvalue = -73.358"] ;
13 -> 45 ;
46 [label="(...)"] ;
45 -> 46 ;
53 [label="(...)"] ;
45 -> 53 ;
54 [label="desc1 <= -0.455\nsquared_error = 945.556\nsamples = 28\nvalue = -48.669"] ;
12 -> 54 ;
55 [label="desc2 <= 1.439\nsquared_error = 687.524\nsamples = 25\nvalue = -55.188"] ;
54 -> 55 ;
56 [label="(...)"] ;
55 -> 56 ;
75 [label="(...)"] ;
55 -> 75 ;
76 [label="squared_error = 517.274\nsamples = 3\nvalue = -5.648"] ;
54 -> 76 ;
77 [label="desc2 <= -1.178\nsquared_error = 2227.796\nsamples = 88\nvalue = 11.35"] ;
1 -> 77 ;
78 [label="desc2 <= -1.623\nsquared_error = 1603.344\nsamples = 9\nvalue = -35.293"] ;
77 -> 78 ;
79 [label="desc4 <= -0.364\nsquared_error = 424.839\nsamples = 5\nvalue = -10.363"] ;
78 -> 79 ;
80 [label="squared_error = 48.589\nsamples = 3\nvalue = -27.482"] ;
79 -> 80 ;
81 [label="squared_error = 14.669\nsamples = 2\nvalue = 12.464"] ;
79 -> 81 ;
82 [label="desc2 <= -1.371\nsquared_error = 1164.863\nsamples = 4\nvalue = -70.196"] ;
78 -> 82 ;
83 [label="squared_error = 208.45\nsamples = 2\nvalue = -93.773"] ;
82 -> 83 ;
84 [label="squared_error = 515.012\nsamples = 2\nvalue = -34.831"] ;
82 -> 84 ;
85 [label="desc3 <= 0.937\nsquared_error = 2066.073\nsamples = 79\nvalue = 15.656"] ;
77 -> 85 ;
86 [label="desc4 <= -0.704\nsquared_error = 1661.999\nsamples = 63\nvalue = 6.167"] ;
85 -> 86 ;
87 [label="desc5 <= 0.413\nsquared_error = 807.496\nsamples = 11\nvalue = 26.473"] ;
86 -> 87 ;
88 [label="(...)"] ;
87 -> 88 ;
91 [label="(...)"] ;
87 -> 91 ;
96 [label="desc2 <= -0.536\nsquared_error = 1739.56\nsamples = 52\nvalue = 1.68"] ;
86 -> 96 ;
97 [label="(...)"] ;
96 -> 97 ;
104 [label="(...)"] ;
96 -> 104 ;
141 [label="desc3 <= 1.535\nsquared_error = 1796.58\nsamples = 16\nvalue = 55.511"] ;
85 -> 141 ;
142 [label="desc3 <= 1.009\nsquared_error = 574.514\nsamples = 9\nvalue = 37.645"] ;
141 -> 142 ;
143 [label="(...)"] ;
142 -> 143 ;
144 [label="(...)"] ;
142 -> 144 ;
149 [label="desc4 <= 0.315\nsquared_error = 2428.731\nsamples = 7\nvalue = 78.248"] ;
141 -> 149 ;
150 [label="(...)"] ;
149 -> 150 ;
151 [label="(...)"] ;
149 -> 151 ;
154 [label="desc5 <= 0.124\nsquared_error = 3732.362\nsamples = 241\nvalue = 15.521"] ;
0 -> 154 [labeldistance=2.5, labelangle=-45, headlabel="False"] ;
155 [label="desc5 <= -0.896\nsquared_error = 1889.082\nsamples = 126\nvalue = -22.963"] ;
154 -> 155 ;
156 [label="desc2 <= 0.393\nsquared_error = 1440.662\nsamples = 41\nvalue = -58.227"] ;
155 -> 156 ;
157 [label="desc3 <= -1.295\nsquared_error = 984.405\nsamples = 28\nvalue = -73.851"] ;
156 -> 157 ;
158 [label="squared_error = 246.345\nsamples = 3\nvalue = -109.332"] ;
157 -> 158 ;
159 [label="desc5 <= -1.968\nsquared_error = 854.712\nsamples = 25\nvalue = -67.642"] ;
157 -> 159 ;
160 [label="(...)"] ;
159 -> 160 ;
163 [label="(...)"] ;
159 -> 163 ;
180 [label="desc4 <= 1.169\nsquared_error = 779.717\nsamples = 13\nvalue = -24.848"] ;
156 -> 180 ;
181 [label="desc5 <= -1.39\nsquared_error = 245.137\nsamples = 9\nvalue = -45.761"] ;
180 -> 181 ;
182 [label="(...)"] ;
181 -> 182 ;
183 [label="(...)"] ;
181 -> 183 ;
186 [label="desc4 <= 1.658\nsquared_error = 7.746\nsamples = 4\nvalue = 5.358"] ;
180 -> 186 ;
187 [label="(...)"] ;
186 -> 187 ;
188 [label="(...)"] ;
186 -> 188 ;
189 [label="desc2 <= -0.496\nsquared_error = 1260.189\nsamples = 85\nvalue = -6.742"] ;
155 -> 189 ;
190 [label="desc3 <= -0.365\nsquared_error = 1006.696\nsamples = 27\nvalue = -32.92"] ;
189 -> 190 ;
191 [label="desc4 <= 0.542\nsquared_error = 830.958\nsamples = 11\nvalue = -53.252"] ;
190 -> 191 ;
192 [label="(...)"] ;
191 -> 192 ;
197 [label="(...)"] ;
191 -> 197 ;
200 [label="desc3 <= 1.384\nsquared_error = 595.906\nsamples = 16\nvalue = -17.671"] ;
190 -> 200 ;
201 [label="(...)"] ;
200 -> 201 ;
212 [label="(...)"] ;
200 -> 212 ;
213 [label="desc3 <= 0.221\nsquared_error = 889.404\nsamples = 58\nvalue = 5.958"] ;
189 -> 213 ;
214 [label="desc2 <= 0.58\nsquared_error = 631.501\nsamples = 37\nvalue = -6.82"] ;
213 -> 214 ;
215 [label="(...)"] ;
214 -> 215 ;
234 [label="(...)"] ;
214 -> 234 ;
245 [label="desc4 <= -1.143\nsquared_error = 391.006\nsamples = 21\nvalue = 32.29"] ;
213 -> 245 ;
246 [label="(...)"] ;
245 -> 246 ;
247 [label="(...)"] ;
245 -> 247 ;
262 [label="desc3 <= -0.247\nsquared_error = 1980.65\nsamples = 115\nvalue = 62.344"] ;
154 -> 262 ;
263 [label="desc3 <= -0.376\nsquared_error = 1225.427\nsamples = 50\nvalue = 42.501"] ;
262 -> 263 ;
264 [label="desc3 <= -1.384\nsquared_error = 1142.444\nsamples = 44\nvalue = 45.81"] ;
263 -> 264 ;
265 [label="desc3 <= -1.773\nsquared_error = 1041.02\nsamples = 8\nvalue = 24.687"] ;
264 -> 265 ;
266 [label="(...)"] ;
265 -> 266 ;
269 [label="(...)"] ;
265 -> 269 ;
272 [label="desc1 <= -0.052\nsquared_error = 1006.055\nsamples = 36\nvalue = 51.897"] ;
264 -> 272 ;
273 [label="(...)"] ;
272 -> 273 ;
276 [label="(...)"] ;
272 -> 276 ;
303 [label="desc4 <= -0.126\nsquared_error = 921.297\nsamples = 6\nvalue = 11.062"] ;
263 -> 303 ;
304 [label="squared_error = 740.909\nsamples = 3\nvalue = -19.34"] ;
303 -> 304 ;
305 [label="squared_error = 142.22\nsamples = 3\nvalue = 29.303"] ;
303 -> 305 ;
306 [label="desc4 <= -0.965\nsquared_error = 1995.456\nsamples = 65\nvalue = 79.707"] ;
262 -> 306 ;
307 [label="desc1 <= 0.472\nsquared_error = 1669.479\nsamples = 12\nvalue = 50.809"] ;
306 -> 307 ;
308 [label="desc4 <= -1.192\nsquared_error = 787.991\nsamples = 6\nvalue = 32.479"] ;
307 -> 308 ;
309 [label="(...)"] ;
308 -> 309 ;
312 [label="(...)"] ;
308 -> 312 ;
313 [label="desc1 <= 0.687\nsquared_error = 1763.045\nsamples = 6\nvalue = 76.995"] ;
307 -> 313 ;
314 [label="(...)"] ;
313 -> 314 ;
315 [label="(...)"] ;
313 -> 315 ;
318 [label="desc2 <= -1.04\nsquared_error = 1847.229\nsamples = 53\nvalue = 85.926"] ;
306 -> 318 ;
319 [label="desc1 <= 0.396\nsquared_error = 838.35\nsamples = 8\nvalue = 42.731"] ;
318 -> 319 ;
320 [label="(...)"] ;
319 -> 320 ;
321 [label="(...)"] ;
319 -> 321 ;
324 [label="desc3 <= 1.864\nsquared_error = 1633.898\nsamples = 45\nvalue = 93.662"] ;
318 -> 324 ;
325 [label="(...)"] ;
324 -> 325 ;
360 [label="(...)"] ;
324 -> 360 ;
}