digraph Tree {
node [shape=box, fontname="helvetica"] ;
edge [fontname="helvetica"] ;
0 [label="D0000000403 <= 0.281\nsquared_error = 74.701\nsamples = 192\nvalue = 16.055"] ;
1 [label="D0000000403 <= -0.585\nsquared_error = 17.756\nsamples = 96\nvalue = 8.464"] ;
0 -> 1 [labeldistance=2.5, labelangle=45, headlabel="True"] ;
2 [label="D0000000101 <= -1.826\nsquared_error = 3.99\nsamples = 50\nvalue = 4.9"] ;
1 -> 2 ;
3 [label="squared_error = 0.0\nsamples = 17\nvalue = 2.5"] ;
2 -> 3 ;
4 [label="D0000000102 <= -0.995\nsquared_error = 1.55\nsamples = 33\nvalue = 6.136"] ;
2 -> 4 ;
5 [label="squared_error = 0.0\nsamples = 18\nvalue = 5.0"] ;
4 -> 5 ;
6 [label="squared_error = 0.0\nsamples = 15\nvalue = 7.5"] ;
4 -> 6 ;
7 [label="D0000000108 <= -0.179\nsquared_error = 3.914\nsamples = 46\nvalue = 12.337"] ;
1 -> 7 ;
8 [label="squared_error = 0.0\nsamples = 16\nvalue = 10.0"] ;
7 -> 8 ;
9 [label="D0000000108 <= 0.058\nsquared_error = 1.535\nsamples = 30\nvalue = 13.583"] ;
7 -> 9 ;
10 [label="squared_error = 0.0\nsamples = 17\nvalue = 12.5"] ;
9 -> 10 ;
11 [label="squared_error = 0.0\nsamples = 13\nvalue = 15.0"] ;
9 -> 11 ;
12 [label="D0000000403 <= 0.807\nsquared_error = 16.395\nsamples = 96\nvalue = 23.646"] ;
0 -> 12 [labeldistance=2.5, labelangle=-45, headlabel="False"] ;
13 [label="D0000000403 <= 0.653\nsquared_error = 4.295\nsamples = 49\nvalue = 20.204"] ;
12 -> 13 ;
14 [label="D0000000401 <= 0.29\nsquared_error = 1.562\nsamples = 30\nvalue = 18.75"] ;
13 -> 14 ;
15 [label="squared_error = 0.0\nsamples = 15\nvalue = 17.5"] ;
14 -> 15 ;
16 [label="squared_error = 0.0\nsamples = 15\nvalue = 20.0"] ;
14 -> 16 ;
17 [label="squared_error = 0.0\nsamples = 19\nvalue = 22.5"] ;
13 -> 17 ;
18 [label="D0000000403 <= 0.946\nsquared_error = 3.786\nsamples = 47\nvalue = 27.234"] ;
12 -> 18 ;
19 [label="squared_error = 0.0\nsamples = 17\nvalue = 25.0"] ;
18 -> 19 ;
20 [label="D0000000401 <= 1.448\nsquared_error = 1.5\nsamples = 30\nvalue = 28.5"] ;
18 -> 20 ;
21 [label="squared_error = 0.0\nsamples = 18\nvalue = 27.5"] ;
20 -> 21 ;
22 [label="squared_error = 0.0\nsamples = 12\nvalue = 30.0"] ;
20 -> 22 ;
}