digraph Tree {
node [shape=box, fontname="helvetica"] ;
edge [fontname="helvetica"] ;
0 [label="desc5 <= -0.068\nsquared_error = 4549.422\nsamples = 411\nvalue = -4.676"] ;
1 [label="desc5 <= -0.486\nsquared_error = 2558.377\nsamples = 183\nvalue = -51.549"] ;
0 -> 1 [labeldistance=2.5, labelangle=45, headlabel="True"] ;
2 [label="desc5 <= -1.105\nsquared_error = 1893.844\nsamples = 125\nvalue = -69.974"] ;
1 -> 2 ;
3 [label="desc1 <= -0.403\nsquared_error = 1860.059\nsamples = 48\nvalue = -91.52"] ;
2 -> 3 ;
4 [label="desc2 <= -0.307\nsquared_error = 504.555\nsamples = 21\nvalue = -124.94"] ;
3 -> 4 ;
5 [label="desc5 <= -1.528\nsquared_error = 386.072\nsamples = 8\nvalue = -142.378"] ;
4 -> 5 ;
6 [label="(...)"] ;
5 -> 6 ;
9 [label="(...)"] ;
5 -> 9 ;
12 [label="desc3 <= -1.235\nsquared_error = 225.625\nsamples = 13\nvalue = -112.733"] ;
4 -> 12 ;
13 [label="(...)"] ;
12 -> 13 ;
14 [label="(...)"] ;
12 -> 14 ;
21 [label="desc3 <= 0.184\nsquared_error = 1448.152\nsamples = 27\nvalue = -67.343"] ;
3 -> 21 ;
22 [label="desc4 <= 0.027\nsquared_error = 789.234\nsamples = 14\nvalue = -87.464"] ;
21 -> 22 ;
23 [label="(...)"] ;
22 -> 23 ;
28 [label="(...)"] ;
22 -> 28 ;
33 [label="desc5 <= -1.772\nsquared_error = 1142.179\nsamples = 13\nvalue = -42.432"] ;
21 -> 33 ;
34 [label="(...)"] ;
33 -> 34 ;
35 [label="(...)"] ;
33 -> 35 ;
42 [label="desc2 <= 0.057\nsquared_error = 1425.268\nsamples = 77\nvalue = -56.122"] ;
2 -> 42 ;
43 [label="desc4 <= 0.251\nsquared_error = 1012.003\nsamples = 47\nvalue = -72.168"] ;
42 -> 43 ;
44 [label="desc1 <= -2.398\nsquared_error = 644.762\nsamples = 26\nvalue = -81.149"] ;
43 -> 44 ;
45 [label="(...)"] ;
44 -> 45 ;
46 [label="(...)"] ;
44 -> 46 ;
63 [label="desc4 <= 1.457\nsquared_error = 1259.689\nsamples = 21\nvalue = -58.832"] ;
43 -> 63 ;
64 [label="(...)"] ;
63 -> 64 ;
79 [label="(...)"] ;
63 -> 79 ;
80 [label="desc2 <= 0.456\nsquared_error = 821.438\nsamples = 30\nvalue = -26.219"] ;
42 -> 80 ;
81 [label="desc2 <= 0.409\nsquared_error = 417.422\nsamples = 12\nvalue = -12.205"] ;
80 -> 81 ;
82 [label="(...)"] ;
81 -> 82 ;
89 [label="(...)"] ;
81 -> 89 ;
92 [label="desc3 <= -0.714\nsquared_error = 874.301\nsamples = 18\nvalue = -35.043"] ;
80 -> 92 ;
93 [label="(...)"] ;
92 -> 93 ;
96 [label="(...)"] ;
92 -> 96 ;
107 [label="desc2 <= 1.502\nsquared_error = 1898.569\nsamples = 58\nvalue = -15.568"] ;
1 -> 107 ;
108 [label="desc3 <= -1.125\nsquared_error = 1517.618\nsamples = 56\nvalue = -20.61"] ;
107 -> 108 ;
109 [label="desc1 <= 1.349\nsquared_error = 1204.731\nsamples = 11\nvalue = -57.805"] ;
108 -> 109 ;
110 [label="desc1 <= 0.629\nsquared_error = 233.025\nsamples = 9\nvalue = -70.75"] ;
109 -> 110 ;
111 [label="(...)"] ;
110 -> 111 ;
116 [label="(...)"] ;
110 -> 116 ;
117 [label="squared_error = 1036.422\nsamples = 2\nvalue = 6.918"] ;
109 -> 117 ;
118 [label="desc2 <= -0.905\nsquared_error = 1215.939\nsamples = 45\nvalue = -12.445"] ;
108 -> 118 ;
119 [label="desc4 <= 0.287\nsquared_error = 492.859\nsamples = 8\nvalue = -43.891"] ;
118 -> 119 ;
120 [label="(...)"] ;
119 -> 120 ;
121 [label="(...)"] ;
119 -> 121 ;
124 [label="desc5 <= -0.473\nsquared_error = 1159.943\nsamples = 37\nvalue = -8.077"] ;
118 -> 124 ;
125 [label="(...)"] ;
124 -> 125 ;
128 [label="(...)"] ;
124 -> 128 ;
155 [label="squared_error = 764.668\nsamples = 2\nvalue = 68.453"] ;
107 -> 155 ;
156 [label="desc1 <= -0.201\nsquared_error = 2679.958\nsamples = 228\nvalue = 36.42"] ;
0 -> 156 [labeldistance=2.5, labelangle=-45, headlabel="False"] ;
157 [label="desc1 <= -0.865\nsquared_error = 1706.088\nsamples = 97\nvalue = 6.247"] ;
156 -> 157 ;
158 [label="desc2 <= -1.178\nsquared_error = 1774.904\nsamples = 51\nvalue = -3.126"] ;
157 -> 158 ;
159 [label="desc3 <= -0.304\nsquared_error = 1186.966\nsamples = 4\nvalue = -57.098"] ;
158 -> 159 ;
160 [label="squared_error = 404.669\nsamples = 2\nvalue = -92.368"] ;
159 -> 160 ;
161 [label="squared_error = 21.514\nsamples = 2\nvalue = -28.883"] ;
159 -> 161 ;
162 [label="desc3 <= 0.582\nsquared_error = 1453.954\nsamples = 47\nvalue = 3.35"] ;
158 -> 162 ;
163 [label="desc5 <= 1.217\nsquared_error = 1162.327\nsamples = 31\nvalue = -10.842"] ;
162 -> 163 ;
164 [label="(...)"] ;
163 -> 164 ;
185 [label="(...)"] ;
163 -> 185 ;
190 [label="desc5 <= 0.29\nsquared_error = 977.743\nsamples = 16\nvalue = 28.581"] ;
162 -> 190 ;
191 [label="(...)"] ;
190 -> 191 ;
196 [label="(...)"] ;
190 -> 196 ;
205 [label="desc5 <= 1.197\nsquared_error = 1425.578\nsamples = 46\nvalue = 16.608"] ;
157 -> 205 ;
206 [label="desc4 <= 1.059\nsquared_error = 885.369\nsamples = 34\nvalue = 4.687"] ;
205 -> 206 ;
207 [label="desc1 <= -0.777\nsquared_error = 782.957\nsamples = 29\nvalue = 9.647"] ;
206 -> 207 ;
208 [label="(...)"] ;
207 -> 208 ;
209 [label="(...)"] ;
207 -> 209 ;
230 [label="desc2 <= 0.188\nsquared_error = 536.313\nsamples = 5\nvalue = -23.42"] ;
206 -> 230 ;
231 [label="(...)"] ;
230 -> 231 ;
232 [label="(...)"] ;
230 -> 232 ;
233 [label="desc4 <= 0.763\nsquared_error = 920.206\nsamples = 12\nvalue = 61.31"] ;
205 -> 233 ;
234 [label="desc2 <= -0.109\nsquared_error = 864.433\nsamples = 9\nvalue = 67.22"] ;
233 -> 234 ;
235 [label="(...)"] ;
234 -> 235 ;
238 [label="(...)"] ;
234 -> 238 ;
241 [label="squared_error = 668.355\nsamples = 3\nvalue = 43.579"] ;
233 -> 241 ;
242 [label="desc5 <= 0.869\nsquared_error = 2131.021\nsamples = 131\nvalue = 60.925"] ;
156 -> 242 ;
243 [label="desc1 <= 1.489\nsquared_error = 1163.378\nsamples = 82\nvalue = 35.234"] ;
242 -> 243 ;
244 [label="desc2 <= 0.101\nsquared_error = 1047.968\nsamples = 72\nvalue = 30.34"] ;
243 -> 244 ;
245 [label="desc2 <= -1.329\nsquared_error = 882.212\nsamples = 40\nvalue = 14.3"] ;
244 -> 245 ;
246 [label="(...)"] ;
245 -> 246 ;
255 [label="(...)"] ;
245 -> 255 ;
280 [label="desc4 <= 0.432\nsquared_error = 567.64\nsamples = 32\nvalue = 49.588"] ;
244 -> 280 ;
281 [label="(...)"] ;
280 -> 281 ;
298 [label="(...)"] ;
280 -> 298 ;
307 [label="desc1 <= 2.14\nsquared_error = 612.801\nsamples = 10\nvalue = 69.836"] ;
243 -> 307 ;
308 [label="desc5 <= 0.561\nsquared_error = 436.322\nsamples = 7\nvalue = 79.522"] ;
307 -> 308 ;
309 [label="(...)"] ;
308 -> 309 ;
312 [label="(...)"] ;
308 -> 312 ;
313 [label="squared_error = 233.171\nsamples = 3\nvalue = 45.623"] ;
307 -> 313 ;
314 [label="desc5 <= 2.209\nsquared_error = 1350.344\nsamples = 49\nvalue = 95.486"] ;
242 -> 314 ;
315 [label="desc3 <= -0.284\nsquared_error = 1066.214\nsamples = 47\nvalue = 90.812"] ;
314 -> 315 ;
316 [label="desc5 <= 1.437\nsquared_error = 436.645\nsamples = 19\nvalue = 71.937"] ;
315 -> 316 ;
317 [label="(...)"] ;
316 -> 317 ;
328 [label="(...)"] ;
316 -> 328 ;
333 [label="desc1 <= 0.687\nsquared_error = 1094.136\nsamples = 28\nvalue = 103.002"] ;
315 -> 333 ;
334 [label="(...)"] ;
333 -> 334 ;
345 [label="(...)"] ;
333 -> 345 ;
356 [label="squared_error = 40.841\nsamples = 2\nvalue = 169.334"] ;
314 -> 356 ;
}